weights:
[[-0.03981281 -0.00569721  0.01699097 ...  0.01557288 -0.0651485
   0.06043654]
 [ 0.11908714 -0.0104562   0.10972514 ...  0.10065377 -0.00205527
  -0.07996389]
 [ 0.05754171  0.07008841 -0.01828016 ...  0.0193543  -0.05907562
   0.05009154]
 ...
 [-0.10999054  0.04540966 -0.06178084 ... -0.1067802   0.05929261
   0.00771379]
 [ 0.00457483 -0.10132889  0.05576125 ... -0.03499106 -0.07426664
  -0.00924049]
 [ 0.02244903 -0.090838    0.00063671 ...  0.06591862 -0.03769949
  -0.10720496]]



new weights:
[[-0.03981281 -0.00569721  0.01699097 ...  0.01557288 -0.0651485
   0.06043654]
 [ 0.11908714 -0.0104562   0.10972514 ...  0.10065377 -0.00205527
  -0.07996389]
 [ 0.05754171  0.07008841 -0.01828016 ...  0.0193543  -0.05907562
   0.05009154]
 ...
 [-0.10999054  0.04540966 -0.06178084 ... -0.1067802   0.05929261
   0.00771379]
 [ 0.00457483 -0.10132889  0.05576125 ... -0.03499106 -0.07426664
  -0.00924049]
 [ 0.02244903 -0.090838    0.00063671 ...  0.06591862 -0.03769949
  -0.10720496]]



